%YAML:1.0
my_nn: !!opencv-ml-ann-mlp
   layer_sizes: !!opencv-matrix
      rows: 1
      cols: 3
      dt: i
      data: [ 12, 24, 1 ]
   activation_function: SIGMOID_SYM
   f_param1: 6.6666666666666663e-001
   f_param2: 1.7159000000000000e+000
   min_val: -9.4999999999999996e-001
   max_val: 9.4999999999999996e-001
   min_val1: -9.7999999999999998e-001
   max_val1: 9.7999999999999998e-001
   training_params:
      train_method: RPROP
      dw0: 1.0000000000000001e-001
      dw_plus: 1.2000000000000000e+000
      dw_minus: 5.0000000000000000e-001
      dw_min: 1.1920928955078125e-007
      dw_max: 50.
      term_criteria: { epsilon:9.9999999747524271e-007, iterations:1000 }
   input_scale: [ 1., 0., 1., 0., 1., 0., 1., 0., 1., 0., 1., 0., 1., 0.,
       1., 0., 1., 0., 1., 0., 1., 0., 1., 0. ]
   output_scale: [ 1., 0. ]
   inv_output_scale: [ 1., 0. ]
   weights:
      - [ -8.2276082024426891e-002, 2.2600252689464537e-001,
          1.6532108524644112e-001, 2.6938326895469961e-003,
          -1.0213376448919030e-001, -1.2760622327518598e-002,
          1.7912825718485084e-002, 1.8147305887960391e-001,
          -1.5745293187332460e-001, -2.0798436693488534e-001,
          -1.2529553828450163e-001, 3.0805377734955543e-002,
          1.4114565217114849e-001, 1.3641325696583781e-001,
          9.4591624023153159e-002, -7.2815409229837272e-002,
          1.2750076496019305e-001, 4.5735201473857554e-002,
          3.1339577496217394e-002, 1.6324615788454402e-001,
          -6.7488449320780687e-003, 3.1996384165893989e-002,
          1.6709671218468602e-001, 9.8501444057192938e-002,
          -2.1856595959663955e-001, -5.8432761301060587e-001,
          4.1010333348539574e-001, -4.1671985817761437e-001,
          1.8885519640757947e-001, 4.4305023611679750e-001,
          1.7379943686014367e+000, -2.6850758826968402e-001,
          2.1516431438977623e-001, 4.4764237583033939e-001,
          4.0325861060288404e-001, 4.8903506691049947e-001,
          -4.5340473740296094e-001, -3.7162664188614014e-001,
          -1.9211295667207651e-001, -2.5254723285046665e-001,
          -2.0443106833973937e-001, -4.6827617024910695e-001,
          4.0220232311570392e-001, -1.2177604304685271e+001,
          -2.8882211518393658e-001, 3.1525384939132123e-001,
          -2.3589348047784534e-001, -3.7548621993954651e-001,
          1.2085271705948038e-001, 3.6940729238888217e+000,
          5.2221306659894447e-002, 6.0597174188404428e-002,
          1.9409524237530879e-001, -7.2774365865305848e-002,
          -2.5121555786474431e-001, 1.0093804324044309e-001,
          -1.2935547644185644e-001, 2.0344832282106737e-001,
          -8.4184048786541801e-002, 5.5386186469821644e-002,
          1.5694548325669902e-001, 9.5675929208724309e-002,
          1.4063440165957364e-001, 7.4089399661118840e-002,
          -3.0177142739808488e-001, -8.3796190511382679e-002,
          1.1001723336392435e-001, 5.6988814300386070e+002,
          1.6369405600394105e-001, -1.3453650088703356e-001,
          2.0467194647048229e-002, -2.2358767963885054e-001,
          -1.9915986280728815e-001, -1.1950005722660559e+000,
          1.5816665342695943e-001, 3.5950945266171705e-003,
          1.5986418139879030e-001, -4.9955239393143051e-002,
          -1.2298227141836540e+000, 6.5340556478874143e-003,
          1.9714358309023364e-001, 8.0540751037444805e-002,
          2.3329356362280676e-001, 2.8700337108031265e-001,
          -1.8260767687952439e-001, -3.4127467402172096e-002,
          1.6206970668847274e+000, -1.9959965050551134e-001,
          -2.7839240795935283e-001, -2.6179835314433192e-001,
          4.6875458164663215e-002, -2.0642886635183703e+002,
          4.6631777704367017e-001, 1.5735930477860297e-001,
          -2.7079913238624032e-001, 1.5793971258142775e-001,
          1.6608726794724291e-001, 9.3092500800104787e+000,
          2.9656436982866330e-001, -3.8090799467356257e-001,
          1.1710979398678127e-002, 2.3448913304012348e-001,
          -9.9189805021082105e+000, 3.4854752917390049e-002,
          1.2181063433023583e-001, 3.9326001547459917e-002,
          -1.0195950812103871e-001, 3.5912222275097899e-001,
          -1.2798338960447606e-001, -7.8904659606701247e-002,
          1.6987278560051167e+000, -8.5539154893132449e-002,
          1.3974383382713282e-001, -8.7155235680573664e-002,
          4.0913067589118696e-001, 1.5446786109705769e+002,
          6.9073788902076743e+000, -5.0758991568928803e-002,
          -3.3521751978015935e-002, 2.2084782434216602e-001,
          2.9280028321335450e-001, -1.5719373613543533e-001,
          -3.2262317126028534e-001, 8.3725702056484507e-003,
          -2.8245112694068569e-001, -2.7015851001653429e-001,
          -1.8451180496325845e-001, 1.4964678356443301e-001,
          -7.1127302079625518e-002, -1.6971421938515735e-001,
          -1.0702187914580608e-001, -1.6964973916632164e-001,
          7.6390093989564770e-002, 1.2121387948931778e-001,
          3.4163745358929620e-001, 1.6345245771263836e-001,
          -4.4584165763978745e-004, 2.7583599150477439e-001,
          -6.3133249403373119e-003, 2.8147085987445464e-001,
          2.0660553811314847e-001, -2.5288298935093606e-001,
          1.1055514661800951e-001, 2.4524158583971373e-001,
          -6.2099158311172010e-003, -1.2813478483979438e-002,
          8.0687081554161339e-003, -9.0218355777154424e-002,
          2.2888640453053924e-001, 2.7851117484122456e-003,
          2.7291070881125984e-001, -1.3239004116762601e-001,
          1.6292992674605561e-001, -5.1059466391638685e-002,
          -4.9576836058979022e-002, 4.6453454916885351e-002,
          8.4247591324515494e-002, -2.3188579098230327e-001,
          8.3312680213572424e-002, 2.3024501296488715e-002,
          1.7709182562203421e-001, -5.3067259656732695e-002,
          9.1815148523998857e-002, 3.2451266023993386e-001,
          1.6166856782901740e-001, 1.0200397378309860e-001,
          -1.5092020213131063e-001, -9.0443430210802103e-002,
          2.3825360657667960e-001, -2.9384182062767423e+000,
          -8.1324041981800238e-002, 3.1446112529459891e-001,
          -2.6864260458927480e-001, -1.0153617931589581e-001,
          -2.5046384869376548e-001, 2.7638877953775792e-001,
          -2.3801723298829466e-001, -3.2295197368062151e-001,
          -2.6736633550223593e-001, -3.4109901858719666e-001,
          2.0111907334882115e-001, 1.7285014280281683e-001,
          2.4871608828028308e-001, 3.3487922342144633e-001,
          -7.4208660674772720e-002, 7.6866654407223900e-002,
          -2.4660455247454363e-001, 7.5698353201605187e+001,
          3.6507319349374528e-001, -2.8387838606972648e-001,
          2.5901691770522778e-001, 2.8858376065880270e-001,
          1.3682235640708734e-001, -1.6641576170173650e-001,
          -1.5360385816046263e-001, 2.6487186666959328e-001,
          -2.6485596883142193e-001, 9.1960391450969601e-003,
          -5.0540610063198157e+000, 5.9234514389889532e-002,
          -1.8850385333824818e-001, -1.1737307987883618e-001,
          -8.6261978627423630e-002, -2.1875941215607450e-001,
          7.3267747850048193e-002, 2.0861759795323374e-002,
          3.6073113635052717e-001, 6.1043756896955952e-002,
          -1.2564050948519789e-001, 2.9714808566108469e-001,
          -3.9261763927342735e-002, 1.2980666612192596e+002,
          2.9860126561726501e+000, -3.0801274967335185e-001,
          1.9781155748816495e-001, 4.5196443268819782e-002,
          3.2922354734442294e-001, -4.1862476812741827e+000,
          -3.2840257597450678e-001, 2.5271678432349726e-001,
          -4.0397183931528935e-001, -2.1649148259596504e-001,
          -7.4317472104261195e-001, 2.3498790976518810e-001,
          -1.5827650736618268e-001, -4.2152832820599373e-001,
          -1.5713123147019156e-001, -2.2151804030552444e-001,
          2.0270935719955127e-001, 4.1849030238400747e-001,
          2.6128444385632105e-001, 2.0383551409759795e-001,
          1.1987723904863327e-002, 2.1142505684679522e-001,
          -3.0271609018600365e-001, 9.6503837045511123e+000,
          1.8696699916173221e-001, -3.7047237578946168e-001,
          3.2894165832899824e-001, 3.3106992952116421e-001,
          4.0589132633371694e-001, 3.0947756307268892e-001,
          -8.8895746083314930e-001, 3.1516592969700119e-001,
          -6.1411807666743623e-001, -6.0379079624241017e-001,
          -1.0595150410195873e+000, 6.7355406719675082e-001,
          -3.5625207845506951e-001, -5.0379437672312932e-001,
          -4.2457342489795996e-001, -4.1586778959764265e-001,
          5.1007683467832265e-001, 5.7090404587148302e-001,
          5.1971024624999174e-001, 5.1400426726009851e-001,
          1.6759862259914823e-001, 3.6156962558215017e-001,
          -3.1817245120499155e-001, 2.1344177812437877e+002,
          4.4432295721504517e-001, -4.0709060913753153e-001,
          5.2203091304291949e-001, 5.8947425434185252e-001,
          -5.5485765276967323e-002, 1.7950701565951011e-001,
          -1.2114159960902129e-001, 3.0175938379123139e-002,
          -6.6385658689586027e-002, -1.0678082977576266e-001,
          -2.2713638749813175e-001, 1.9237462129373986e-001,
          -1.4070305004140801e-001, -1.5420656232676444e-001,
          3.5647806079571236e-002, -1.1288598420292771e-001,
          7.7181263479203802e-002, 9.7329275083234731e-002,
          -1.3640651545070501e-001, -3.3460073159917857e-002,
          4.6503736476574364e-001, 1.4125809470037196e-001,
          -4.1722077123978789e-002, 4.6924819967439850e-002,
          7.9759367071536399e-002, -1.1603887989131791e-001,
          1.2731581641794223e-001, 2.2585067091566013e-001,
          -1.9379869336252775e-001, -1.3009926298454796e-001,
          1.4289995210958850e-001, -1.0896782302828548e-001,
          1.4505900295181692e-001, 1.5228375022965956e-001,
          1.8759292466984326e-001, -2.0060798444918954e-001,
          1.8416311686325754e-001, 1.6684180075683042e-001,
          1.7032096163287430e-001, 1.5796017987959410e-001,
          -1.5734312515607662e-001, -1.3770988905791270e-001,
          -1.5983203220153425e-001, -1.5383794934342526e-001,
          8.9453493478000995e-002, -1.7879324023149434e-001,
          1.3643554933293522e-001, -5.3257149543335158e-001,
          -1.6254550753248356e-001, 2.1967515989371908e-001,
          -1.6500388061273580e-001, -1.3847769706456284e-001 ]
      - [ 7.6473674189841212e-001, 2.0449640205585111e+000,
          1.0974933202070483e+001, 7.9800400780287073e-001,
          -6.3055953775579843e-001, -1.4155506138258345e+000,
          -5.1581450205099855e-001, 7.8073220889558714e-001,
          -3.9198008156789337e+000, -9.5699042226588249e-001,
          -1.8831089401140595e+001, -8.0905388843643178e-001,
          1.9198414896143280e+001, -5.0980446833848090e+000,
          7.3289023339533699e-001, 1.7329357093246767e+000,
          6.9468294569956679e-002, 2.3692549488698603e-001,
          -7.6210343063571151e-001, 1.0541106223330274e+000,
          5.3380050598129514e-001, -2.4532243842062962e-001,
          1.5526233665162565e+000, 6.6795369090009538e-001,
          2.1742305026113912e-001 ]
