%YAML:1.0
my_nn: !!opencv-ml-ann-mlp
   layer_sizes: !!opencv-matrix
      rows: 1
      cols: 3
      dt: i
      data: [ 12, 24, 1 ]
   activation_function: SIGMOID_SYM
   f_param1: 6.6666666666666663e-001
   f_param2: 1.7159000000000000e+000
   min_val: -9.4999999999999996e-001
   max_val: 9.4999999999999996e-001
   min_val1: -9.7999999999999998e-001
   max_val1: 9.7999999999999998e-001
   training_params:
      train_method: RPROP
      dw0: 1.0000000000000001e-001
      dw_plus: 1.2000000000000000e+000
      dw_minus: 5.0000000000000000e-001
      dw_min: 1.1920928955078125e-007
      dw_max: 50.
      term_criteria: { epsilon:9.9999999747524271e-007, iterations:1000 }
   input_scale: [ 1., 0., 1., 0., 1., 0., 1., 0., 1., 0., 1., 0., 1., 0.,
       1., 0., 1., 0., 1., 0., 1., 0., 1., 0. ]
   output_scale: [ 1., 0. ]
   inv_output_scale: [ 1., 0. ]
   weights:
      - [ -3.2056388045265627e-001, 2.0824114806511193e-001,
          8.2867200807598157e-002, 3.4032091831471815e-002,
          -6.4270835381524130e-002, -9.0551297723312896e-001,
          -1.0588306831267195e-001, -3.3695138747709394e-002,
          -7.8837286269299769e-002, -1.0954744707432650e-001,
          2.1059975568201827e-001, -1.5952830087805817e-001,
          -1.1310980440110135e-001, 1.8232015149046849e-002,
          1.8660566007060814e-002, 2.6705866479962904e-002,
          -1.3974926663597453e-001, -5.5821463302565294e-002,
          -1.7710313854207799e-001, -1.3197787844451958e-001,
          2.4630467627893676e-001, -2.7254920694428215e-002,
          -1.3470245738493630e-001, 8.7936966136408792e-002,
          -3.8126553489846948e-002, -1.6086235357668460e-001,
          -5.8008765479018856e-002, 1.0472174831838127e-001,
          -1.9741059073420716e-002, -5.0139457338546904e+000,
          5.6715365661726769e-001, 7.3806089340317155e-002,
          3.4219325196512948e+001, 1.7595813943145331e-002,
          -1.3462909064588802e-001, -2.5697697227378830e-002,
          1.8719953973349740e-001, -1.1581544690473511e-002,
          1.1832014272285736e-001, -5.0906619483931867e-002,
          1.3145180302961473e-001, 8.6256923976772037e-002,
          1.2835174460745846e-001, -8.4595470478706428e-002,
          1.8858076494986529e-002, -9.9346674693657863e-002,
          -1.4104151645651775e-001, 5.8490932913156789e-002,
          4.2519207754957253e-002, 1.6169594544317586e-001,
          8.7473387791472429e-002, 4.2062667856322580e-002,
          -3.4462007645165865e-001, -1.3753288619032278e+002,
          -9.3925567346152622e-002, -1.4280010602169135e-001,
          -8.0670038622189566e+001, 9.3830772986049527e-002,
          -7.1589187847969804e-001, 1.7207296799378186e-002,
          -1.6241035080008304e-001, 2.8861836383865063e-002,
          -2.3026534648574715e-001, -7.5498012216434165e-002,
          2.3428396159153558e-001, -5.2652058671510363e-002,
          2.8152085801827836e-001, 1.8316154835580924e+001,
          1.4284026174946726e-001, -2.2962205015807383e-002,
          -1.0061354336004906e-001, 3.9715828071890870e-002,
          -1.7380180554173494e-001, -1.6574502108882938e-001,
          -7.4912282451032375e-001, 1.7423314165945117e-001,
          2.3339943649799411e-001, 1.3754538250845876e+001,
          8.6118304972325144e-001, 2.4591547259073746e-001,
          2.6338579834319635e-002, 2.7534233192484431e-001,
          6.3261667713037109e-002, 1.8512026431422637e-001,
          -4.5300529559129128e-003, 5.0033894548541645e-002,
          1.0787867902266682e-001, -2.9856773268047176e-001,
          -8.4572020008920168e-002, -8.2481855357631736e-002,
          1.1114691063587220e-001, 6.0719771464298162e+000,
          -2.9210739157049770e-001, 4.6799893444905011e-002,
          7.2244910337508655e-002, -2.2839386982068426e-002,
          5.5356683924560494e-002, 9.3686334764685533e-002,
          1.2391942049421631e-001, 1.3335191937266938e-001,
          4.3725604084156065e-002, -1.0993239379505431e+001,
          -3.5845524215858765e-002, 5.0643193237334447e-002,
          3.3811279018612190e+001, -1.5969392187235709e-001,
          -1.0356821470637657e-001, 3.9813542819026354e-002,
          2.4974368830279238e-002, -3.6910012870300257e-001,
          -4.1460089605930908e-002, -1.4599855995447461e-001,
          3.0967742319733083e-001, 7.0638246900972063e-002,
          7.8905992209051548e-002, -6.0431895819342136e+000,
          -6.0132569921483872e-002, -1.8784350872849209e-001,
          -9.4352383875449281e-002, 2.2598963939135155e-001,
          -1.8458317614887426e-001, 2.4625192746432663e-003,
          1.7948068976074621e-001, 2.5452831174878877e-002,
          4.7172554297338430e-002, 1.5306586919965284e+000,
          8.5323448998628315e-002, 5.7449219371494831e-002,
          -7.2223654491074399e+001, -1.7780211981441262e-002,
          1.5793484023898424e-001, 1.2958160714727626e-001,
          -2.0722819018931388e-001, -4.0853505026511028e-002,
          8.0245676200685026e-002, -1.5596196438859643e-002,
          -2.3088836774986940e-001, 7.6949527736989050e-003,
          -4.1976263899656741e-001, -3.8657116369775792e-002,
          1.6748263127249433e-002, -8.5117058119320826e-002,
          -5.7618175980739997e-002, 1.6456942285757788e-002,
          2.1166105102820267e-002, 1.2402634840881431e-001,
          2.1051281496949861e-001, -2.2330762421072686e-001,
          -1.2336209496067770e-001, 2.1176980222314223e+000,
          -1.8104924550187487e-001, -8.7954151308180725e-002,
          -1.7554985886685106e+001, -1.6199970353398688e-001,
          1.4287424203570917e-002, 2.8674537983580359e-002,
          -1.6593026126425031e-001, -8.3626786004943679e-002,
          -1.8022880560542309e-001, -1.2394259029216961e-001,
          2.4183163574927068e-002, -7.4759768766198310e-003,
          -9.0612166091213697e-002, -2.0609539358778661e-001,
          6.5101953994160189e-002, -8.4252080769946752e-002,
          4.5905950710500014e-002, 2.4899288151487067e-001,
          2.5932419774378442e-003, -7.8116087069034751e-002,
          1.6495912674876659e-001, 5.4703829397462003e-002,
          9.6657455049589017e-002, 1.8861458835935746e-001,
          -4.0330662093451342e-001, -2.3856944786105222e-001,
          -3.7151798342196028e-002, 5.8342111706268213e-002,
          1.8515054208245587e-002, 1.9704465101301427e-001,
          -1.5324363587330034e-001, -1.9979565714885128e-001,
          -8.6966777493618780e-002, -2.0994043726331148e-002,
          4.1662872959563162e-002, -1.3556799682252219e-001,
          9.4853662953024803e-002, -5.7913236449977914e+000,
          6.0931267797631576e-003, 6.6269234239315383e-002,
          -2.1980638404345015e-001, -1.9095371049024475e-002,
          3.1432873019300750e-001, 1.0651037005545690e-001,
          2.2591566400709759e-001, -3.6582332696034964e-001,
          -2.5637408452235289e-001, 2.4116415207499358e+002,
          -1.3080985870895927e+000, -3.3188805042102043e-001,
          2.5061442633851588e+001, -2.3126646826862018e-001,
          -4.2489554522710687e-001, -3.7831649861019062e-001,
          -3.1473778387279294e-001, -3.1914735597904381e-001,
          -9.1546823761098503e-002, 2.7692449346824666e-001,
          3.4612319133769404e-001, 2.0236469153831615e-001,
          3.6480966243342144e-001, -1.7414614084182187e+001,
          2.9178511066302321e-001, -1.5956243214353802e-001,
          -2.8908930023246648e-001, 2.1177659461458909e-001,
          -8.1581310160376119e-001, -3.8920190320853704e-001,
          -2.1196455100807107e-001, 7.2752647113295599e-002,
          5.3760210192244295e-001, -7.8777946750930283e+001,
          -4.7985002197262379e-002, -8.4918280824551259e-003,
          -7.6260200403762695e+001, 1.9412194565727367e-001,
          5.8735273649750563e-001, 4.3825541060339139e-002,
          7.5709793041464468e-002, 8.8212278941761174e-002,
          4.8687301292415086e-001, -2.0800092097588263e-001,
          -3.1666994580296637e-001, 3.7750180518376426e-004,
          -3.8680335150577450e-001, -3.5330010843284444e-002,
          -6.9185647391795702e-001, 1.5821937443416592e-001,
          1.0755764716390494e-001, 2.4973813873683880e-002,
          3.5596123845249836e-002, -8.8705887349935231e-004,
          -3.1275489793604644e-001, 4.7088127317962564e-001,
          1.9738904782805128e-001, -7.5029266194922712e+001,
          7.8274259209746777e-001, 3.8658694167970448e-001,
          1.2502781980365957e+002, 7.7262761864186624e-001,
          1.2980763693930028e-001, 7.5625894364060620e-001,
          2.1007950201691020e-001, 8.0936416208517070e-001,
          4.3977259545079084e-001, -1.7331847885781182e-001,
          2.7310819504058649e-002, -1.5570526510751019e+000,
          -1.6686324051022310e-002, 3.4988709366729459e+001,
          -1.3550418172807166e-001, 3.0493306095613820e-001,
          6.0365028154374145e-001, -7.2616932129167433e-001,
          -5.7227017593305385e-001, -1.2518249772128420e-001,
          7.1063024901138500e-002, 8.4364982030104202e-002,
          -1.9832996659460281e-001, -5.8182594714365288e-001,
          1.2775225021177028e-001, -1.6171565269572152e-001,
          -8.3082978573758437e-001, 7.7323755723681817e-002,
          1.6205121841107933e-001, -1.6135706034005520e-002,
          7.5020332892539690e-002, -6.1042310606857914e-002,
          -1.4317666322913297e-001, -1.6971208180036638e-003,
          -1.8217153434404529e-001, -2.8139510642099172e-002,
          -8.3581394793190558e-002, -4.1692813817936898e+000,
          1.5666680001435640e-001, -1.4900574261511584e-001,
          1.3622958113596897e-001, -6.8160467406421940e-002,
          -7.2116952249275029e-002, 1.1677164424502078e-001,
          3.4792212866312949e-001, -2.4840214890544726e-001,
          -1.0223974702443919e-001, 1.7742010845534426e+000,
          -5.5783469981838574e-001, -1.4987607180618348e-001,
          7.2640700880039439e+000, -1.9446382098725598e-001,
          6.4535147038197377e-002, -1.7695379180830551e-001,
          -1.8146775337007945e-001, -1.7874558804996901e-001,
          -2.0086081673642031e-001, 1.0369380833173156e-001,
          -8.4236225669367115e-002, 2.2830861301197594e-001,
          -6.3399000747268758e-002, -1.0133460837847010e+000,
          1.4830472302646738e-001, -1.2217542538145415e-001,
          -1.2110287931136170e-001, 1.0503712397166097e-001 ]
      - [ -4.1444500090557285e-001, -1.9970057723957579e-001,
          -1.0789245006066379e+000, 5.4906854168065700e-001,
          8.5706985190594154e-001, -5.4830902304480489e-001,
          8.7486798618705897e-001, 6.1870760272509762e-002,
          -3.2643119951670291e-001, 1.4678277529956671e+000,
          8.1808035575990956e-001, -6.7932885656845592e+000,
          8.1776042102733726e-001, 2.2220601010856464e-001,
          4.5896343411424195e-001, -6.6301630414263596e-002,
          -1.5341480845475879e+000, 1.5951534985481963e+000,
          -5.0408064808004982e-001, 6.8461665621572421e-001,
          -4.8129354509998934e-001, 4.5957248592691818e-001,
          3.8872481632851957e-001, -7.5154502638393150e-001,
          -3.8419562610100205e-001 ]
